Language model created by QuickLM on Thu Mar 26 10:55:00 EDT 2020
Copyright (c) 1996-2010 Carnegie Mellon University and Alexander I. Rudnicky

The model is in standard ARPA format, designed by Doug Paul while he was at MITRE.

The code that was used to produce this language model is available in Open Source.
Please visit http://www.speech.cs.cmu.edu/tools/ for more information

The (fixed) discount mass is 0.5. The backoffs are computed using the ratio method.
This model based on a corpus of 3 sentences and 9 words

\data\
ngram 1=9
ngram 2=11
ngram 3=9

\1-grams:
-1.0000 </s> -0.3010
-1.0000 <s> -0.2553
-1.1761 ARE -0.2711
-1.4771 FROM -0.2553
-1.4771 INTRODUCE -0.2863
-1.4771 WHERE -0.2711
-1.4771 WHO -0.2711
-1.1761 YOU -0.2389
-1.4771 YOURSELF -0.2553

\2-grams:
-0.7782 <s> INTRODUCE 0.0000
-0.7782 <s> WHERE 0.0000
-0.7782 <s> WHO 0.0000
-0.3010 ARE YOU 0.0000
-0.3010 FROM </s> -0.3010
-0.3010 INTRODUCE YOURSELF 0.0000
-0.3010 WHERE ARE 0.0000
-0.3010 WHO ARE 0.0000
-0.6021 YOU </s> -0.3010
-0.6021 YOU FROM 0.0000
-0.3010 YOURSELF </s> -0.3010

\3-grams:
-0.3010 <s> INTRODUCE YOURSELF
-0.3010 <s> WHERE ARE
-0.3010 <s> WHO ARE
-0.6021 ARE YOU </s>
-0.6021 ARE YOU FROM
-0.3010 INTRODUCE YOURSELF </s>
-0.3010 WHERE ARE YOU
-0.3010 WHO ARE YOU
-0.3010 YOU FROM </s>

\end\
