Language model created by QuickLM on Wed Apr  8 05:23:09 EDT 2020
Copyright (c) 1996-2010 Carnegie Mellon University and Alexander I. Rudnicky

The model is in standard ARPA format, designed by Doug Paul while he was at MITRE.

The code that was used to produce this language model is available in Open Source.
Please visit http://www.speech.cs.cmu.edu/tools/ for more information

The (fixed) discount mass is 0.5. The backoffs are computed using the ratio method.
This model based on a corpus of 2 sentences and 8 words

\data\
ngram 1=8
ngram 2=9
ngram 3=8

\1-grams:
-1.0792 </s> -0.3010
-1.0792 <s> -0.2632
-1.3802 A -0.2632
-1.3802 FOR -0.2825
-1.3802 ME -0.2825
-1.0792 PHOTO -0.2430
-1.3802 PLEASE -0.2632
-1.0792 TAKE -0.2430

\2-grams:
-0.3010 <s> TAKE 0.0000
-0.3010 A PHOTO -0.1761
-0.3010 FOR ME 0.0000
-0.3010 ME PLEASE 0.0000
-0.6021 PHOTO </s> -0.3010
-0.6021 PHOTO FOR 0.0000
-0.3010 PLEASE </s> -0.3010
-0.6021 TAKE A 0.0000
-0.6021 TAKE PHOTO -0.1761

\3-grams:
-0.6021 <s> TAKE A
-0.6021 <s> TAKE PHOTO
-0.3010 A PHOTO FOR
-0.3010 FOR ME PLEASE
-0.3010 ME PLEASE </s>
-0.3010 PHOTO FOR ME
-0.3010 TAKE A PHOTO
-0.3010 TAKE PHOTO </s>

\end\
